digraph Tree {
node [shape=box, style="filled, rounded", color="black", fontname=helvetica] ;
edge [fontname=helvetica] ;
0 [label="petal length (cm) <= 2.6\ngini = 0.66\nsamples = 99\nvalue = [49, 46, 55]\nclass = virginica", fillcolor="#f8f3fd"] ;
1 [label="gini = 0.0\nsamples = 34\nvalue = [49, 0, 0]\nclass = setosa", fillcolor="#e58139"] ;
0 -> 1 [labeldistance=2.5, labelangle=45, headlabel="True"] ;
2 [label="petal width (cm) <= 1.75\ngini = 0.5\nsamples = 65\nvalue = [0, 46, 55]\nclass = virginica", fillcolor="#eadffb"] ;
0 -> 2 [labeldistance=2.5, labelangle=-45, headlabel="False"] ;
3 [label="petal length (cm) <= 5.45\ngini = 0.18\nsamples = 29\nvalue = [0, 44, 5]\nclass = versicolor", fillcolor="#50e88f"] ;
2 -> 3 ;
4 [label="sepal length (cm) <= 4.95\ngini = 0.15\nsamples = 28\nvalue = [0, 44, 4]\nclass = versicolor", fillcolor="#4be78c"] ;
3 -> 4 ;
5 [label="gini = 0.0\nsamples = 1\nvalue = [0, 0, 2]\nclass = virginica", fillcolor="#8139e5"] ;
4 -> 5 ;
6 [label="petal length (cm) <= 4.95\ngini = 0.08\nsamples = 27\nvalue = [0, 44, 2]\nclass = versicolor", fillcolor="#42e687"] ;
4 -> 6 ;
7 [label="gini = 0.0\nsamples = 24\nvalue = [0, 38, 0]\nclass = versicolor", fillcolor="#39e581"] ;
6 -> 7 ;
8 [label="petal width (cm) <= 1.55\ngini = 0.38\nsamples = 3\nvalue = [0, 6, 2]\nclass = versicolor", fillcolor="#7beeab"] ;
6 -> 8 ;
9 [label="gini = 0.0\nsamples = 1\nvalue = [0, 0, 2]\nclass = virginica", fillcolor="#8139e5"] ;
8 -> 9 ;
10 [label="gini = 0.0\nsamples = 2\nvalue = [0, 6, 0]\nclass = versicolor", fillcolor="#39e581"] ;
8 -> 10 ;
11 [label="gini = 0.0\nsamples = 1\nvalue = [0, 0, 1]\nclass = virginica", fillcolor="#8139e5"] ;
3 -> 11 ;
12 [label="petal width (cm) <= 1.85\ngini = 0.07\nsamples = 36\nvalue = [0, 2, 50]\nclass = virginica", fillcolor="#8641e6"] ;
2 -> 12 ;
13 [label="sepal length (cm) <= 5.95\ngini = 0.32\nsamples = 8\nvalue = [0, 2, 8]\nclass = virginica", fillcolor="#a06aec"] ;
12 -> 13 ;
14 [label="gini = 0.0\nsamples = 1\nvalue = [0, 2, 0]\nclass = versicolor", fillcolor="#39e581"] ;
13 -> 14 ;
15 [label="gini = 0.0\nsamples = 7\nvalue = [0, 0, 8]\nclass = virginica", fillcolor="#8139e5"] ;
13 -> 15 ;
16 [label="gini = 0.0\nsamples = 28\nvalue = [0, 0, 42]\nclass = virginica", fillcolor="#8139e5"] ;
12 -> 16 ;
}